digraph Tree {
node [shape=box] ;
0 [label="the <= 0.5\ngini = 0.482\nsamples = 2286\nvalue = [924, 1362]\nclass = Real"] ;
1 [label="hillary <= 0.5\ngini = 0.454\nsamples = 1922\nvalue = [668, 1254]\nclass = Real"] ;
0 -> 1 [labeldistance=2.5, labelangle=45, headlabel="True"] ;
2 [label="donald <= 0.5\ngini = 0.434\nsamples = 1816\nvalue = [578, 1238]\nclass = Real"] ;
1 -> 2 ;
3 [label="(...)"] ;
2 -> 3 ;
462 [label="(...)"] ;
2 -> 462 ;
609 [label="donald <= 0.5\ngini = 0.256\nsamples = 106\nvalue = [90, 16]\nclass = Fake"] ;
1 -> 609 ;
610 [label="(...)"] ;
609 -> 610 ;
613 [label="(...)"] ;
609 -> 613 ;
630 [label="trumps <= 0.5\ngini = 0.417\nsamples = 364\nvalue = [256, 108]\nclass = Fake"] ;
0 -> 630 [labeldistance=2.5, labelangle=-45, headlabel="False"] ;
631 [label="era <= 0.5\ngini = 0.394\nsamples = 349\nvalue = [255, 94]\nclass = Fake"] ;
630 -> 631 ;
632 [label="(...)"] ;
631 -> 632 ;
793 [label="(...)"] ;
631 -> 793 ;
794 [label="war <= 0.5\ngini = 0.124\nsamples = 15\nvalue = [1, 14]\nclass = Real"] ;
630 -> 794 ;
795 [label="(...)"] ;
794 -> 795 ;
796 [label="(...)"] ;
794 -> 796 ;
}