digraph Tree {
node [shape=box, style="filled, rounded", color="black", fontname=helvetica] ;
edge [fontname=helvetica] ;
0 [label="the <= 0.5\nentropy = 0.966\nsamples = 2286\nvalue = [895, 1391]\nclass = Real", fillcolor="#399de55b"] ;
1 [label="donald <= 0.5\nentropy = 0.917\nsamples = 1930\nvalue = [641, 1289]\nclass = Real", fillcolor="#399de580"] ;
0 -> 1 [labeldistance=2.5, labelangle=45, headlabel="True"] ;
2 [label="hillary <= 0.5\nentropy = 0.98\nsamples = 1268\nvalue = [529, 739]\nclass = Real", fillcolor="#399de548"] ;
1 -> 2 ;
3 [label="trumps <= 0.5\nentropy = 0.962\nsamples = 1197\nvalue = [461, 736]\nclass = Real", fillcolor="#399de55f"] ;
2 -> 3 ;
4 [label="us <= 0.5\nentropy = 0.979\nsamples = 1112\nvalue = [461, 651]\nclass = Real", fillcolor="#399de54a"] ;
3 -> 4 ;
5 [label="north <= 0.5\nentropy = 0.992\nsamples = 1004\nvalue = [449, 555]\nclass = Real", fillcolor="#399de531"] ;
4 -> 5 ;
6 [label="just <= 0.5\nentropy = 0.996\nsamples = 972\nvalue = [449, 523]\nclass = Real", fillcolor="#399de524"] ;
5 -> 6 ;
7 [label="(...)", fillcolor="#C0C0C0"] ;
6 -> 7 ;
440 [label="(...)", fillcolor="#C0C0C0"] ;
6 -> 440 ;
445 [label="entropy = 0.0\nsamples = 32\nvalue = [0, 32]\nclass = Real", fillcolor="#399de5ff"] ;
5 -> 445 ;
446 [label="by <= 0.5\nentropy = 0.503\nsamples = 108\nvalue = [12, 96]\nclass = Real", fillcolor="#399de5df"] ;
4 -> 446 ;
447 [label="and <= 0.5\nentropy = 0.422\nsamples = 105\nvalue = [9, 96]\nclass = Real", fillcolor="#399de5e7"] ;
446 -> 447 ;
448 [label="(...)", fillcolor="#C0C0C0"] ;
447 -> 448 ;
457 [label="(...)", fillcolor="#C0C0C0"] ;
447 -> 457 ;
464 [label="entropy = 0.0\nsamples = 3\nvalue = [3, 0]\nclass = Fake", fillcolor="#e58139ff"] ;
446 -> 464 ;
465 [label="entropy = 0.0\nsamples = 85\nvalue = [0, 85]\nclass = Real", fillcolor="#399de5ff"] ;
3 -> 465 ;
466 [label="clinton <= 0.5\nentropy = 0.253\nsamples = 71\nvalue = [68, 3]\nclass = Fake", fillcolor="#e58139f4"] ;
2 -> 466 ;
467 [label="entropy = 0.0\nsamples = 50\nvalue = [50, 0]\nclass = Fake", fillcolor="#e58139ff"] ;
466 -> 467 ;
468 [label="on <= 0.5\nentropy = 0.592\nsamples = 21\nvalue = [18, 3]\nclass = Fake", fillcolor="#e58139d4"] ;
466 -> 468 ;
469 [label="tribute <= 0.5\nentropy = 0.31\nsamples = 18\nvalue = [17, 1]\nclass = Fake", fillcolor="#e58139f0"] ;
468 -> 469 ;
470 [label="entropy = 0.0\nsamples = 17\nvalue = [17, 0]\nclass = Fake", fillcolor="#e58139ff"] ;
469 -> 470 ;
471 [label="entropy = 0.0\nsamples = 1\nvalue = [0, 1]\nclass = Real", fillcolor="#399de5ff"] ;
469 -> 471 ;
472 [label="vote <= 0.5\nentropy = 0.918\nsamples = 3\nvalue = [1, 2]\nclass = Real", fillcolor="#399de57f"] ;
468 -> 472 ;
473 [label="entropy = 0.0\nsamples = 2\nvalue = [0, 2]\nclass = Real", fillcolor="#399de5ff"] ;
472 -> 473 ;
474 [label="entropy = 0.0\nsamples = 1\nvalue = [1, 0]\nclass = Fake", fillcolor="#e58139ff"] ;
472 -> 474 ;
475 [label="trump <= 0.5\nentropy = 0.656\nsamples = 662\nvalue = [112, 550]\nclass = Real", fillcolor="#399de5cb"] ;
1 -> 475 ;
476 [label="entropy = 0.0\nsamples = 55\nvalue = [0, 55]\nclass = Real", fillcolor="#399de5ff"] ;
475 -> 476 ;
477 [label="and <= 0.5\nentropy = 0.69\nsamples = 607\nvalue = [112, 495]\nclass = Real", fillcolor="#399de5c5"] ;
475 -> 477 ;
478 [label="for <= 0.5\nentropy = 0.644\nsamples = 567\nvalue = [93, 474]\nclass = Real", fillcolor="#399de5cd"] ;
477 -> 478 ;
479 [label="le <= 0.5\nentropy = 0.584\nsamples = 515\nvalue = [72, 443]\nclass = Real", fillcolor="#399de5d6"] ;
478 -> 479 ;
480 [label="10 <= 0.5\nentropy = 0.561\nsamples = 510\nvalue = [67, 443]\nclass = Real", fillcolor="#399de5d8"] ;
479 -> 480 ;
481 [label="(...)", fillcolor="#C0C0C0"] ;
480 -> 481 ;
588 [label="(...)", fillcolor="#C0C0C0"] ;
480 -> 588 ;
589 [label="entropy = 0.0\nsamples = 5\nvalue = [5, 0]\nclass = Fake", fillcolor="#e58139ff"] ;
479 -> 589 ;
590 [label="hillary <= 0.5\nentropy = 0.973\nsamples = 52\nvalue = [21, 31]\nclass = Real", fillcolor="#399de552"] ;
478 -> 590 ;
591 [label="election <= 0.5\nentropy = 0.938\nsamples = 48\nvalue = [17, 31]\nclass = Real", fillcolor="#399de573"] ;
590 -> 591 ;
592 [label="(...)", fillcolor="#C0C0C0"] ;
591 -> 592 ;
617 [label="(...)", fillcolor="#C0C0C0"] ;
591 -> 617 ;
618 [label="entropy = 0.0\nsamples = 4\nvalue = [4, 0]\nclass = Fake", fillcolor="#e58139ff"] ;
590 -> 618 ;
619 [label="us <= 0.5\nentropy = 0.998\nsamples = 40\nvalue = [19, 21]\nclass = Real", fillcolor="#399de518"] ;
477 -> 619 ;
620 [label="full <= 0.5\nentropy = 0.998\nsamples = 36\nvalue = [19, 17]\nclass = Fake", fillcolor="#e581391b"] ;
619 -> 620 ;
621 [label="win <= 0.5\nentropy = 0.999\nsamples = 33\nvalue = [16, 17]\nclass = Real", fillcolor="#399de50f"] ;
620 -> 621 ;
622 [label="(...)", fillcolor="#C0C0C0"] ;
621 -> 622 ;
645 [label="(...)", fillcolor="#C0C0C0"] ;
621 -> 645 ;
646 [label="entropy = 0.0\nsamples = 3\nvalue = [3, 0]\nclass = Fake", fillcolor="#e58139ff"] ;
620 -> 646 ;
647 [label="entropy = 0.0\nsamples = 4\nvalue = [0, 4]\nclass = Real", fillcolor="#399de5ff"] ;
619 -> 647 ;
648 [label="trumps <= 0.5\nentropy = 0.864\nsamples = 356\nvalue = [254, 102]\nclass = Fake", fillcolor="#e5813999"] ;
0 -> 648 [labeldistance=2.5, labelangle=-45, headlabel="False"] ;
649 [label="hillary <= 0.5\nentropy = 0.83\nsamples = 343\nvalue = [253, 90]\nclass = Fake", fillcolor="#e58139a4"] ;
648 -> 649 ;
650 [label="america <= 0.5\nentropy = 0.851\nsamples = 325\nvalue = [235, 90]\nclass = Fake", fillcolor="#e581399d"] ;
649 -> 650 ;
651 [label="by <= 0.5\nentropy = 0.868\nsamples = 311\nvalue = [221, 90]\nclass = Fake", fillcolor="#e5813997"] ;
650 -> 651 ;
652 [label="donald <= 0.5\nentropy = 0.884\nsamples = 298\nvalue = [208, 90]\nclass = Fake", fillcolor="#e5813991"] ;
651 -> 652 ;
653 [label="are <= 0.5\nentropy = 0.826\nsamples = 231\nvalue = [171, 60]\nclass = Fake", fillcolor="#e58139a6"] ;
652 -> 653 ;
654 [label="(...)", fillcolor="#C0C0C0"] ;
653 -> 654 ;
765 [label="(...)", fillcolor="#C0C0C0"] ;
653 -> 765 ;
766 [label="deal <= 0.5\nentropy = 0.992\nsamples = 67\nvalue = [37, 30]\nclass = Fake", fillcolor="#e5813930"] ;
652 -> 766 ;
767 [label="(...)", fillcolor="#C0C0C0"] ;
766 -> 767 ;
810 [label="(...)", fillcolor="#C0C0C0"] ;
766 -> 810 ;
811 [label="entropy = 0.0\nsamples = 13\nvalue = [13, 0]\nclass = Fake", fillcolor="#e58139ff"] ;
651 -> 811 ;
812 [label="entropy = 0.0\nsamples = 14\nvalue = [14, 0]\nclass = Fake", fillcolor="#e58139ff"] ;
650 -> 812 ;
813 [label="entropy = 0.0\nsamples = 18\nvalue = [18, 0]\nclass = Fake", fillcolor="#e58139ff"] ;
649 -> 813 ;
814 [label="clean <= 0.5\nentropy = 0.391\nsamples = 13\nvalue = [1, 12]\nclass = Real", fillcolor="#399de5ea"] ;
648 -> 814 ;
815 [label="entropy = 0.0\nsamples = 12\nvalue = [0, 12]\nclass = Real", fillcolor="#399de5ff"] ;
814 -> 815 ;
816 [label="entropy = 0.0\nsamples = 1\nvalue = [1, 0]\nclass = Fake", fillcolor="#e58139ff"] ;
814 -> 816 ;
}